<?xml version="1.0"?>
<opencv_storage>
<my_svm type_id="opencv-ml-svm">
  <svm_type>C_SVC</svm_type>
  <kernel><type>LINEAR</type></kernel>
  <C>10.</C>
  <term_criteria><epsilon>2.2204460492503131e-16</epsilon>
    <iterations>1000</iterations></term_criteria>
  <var_all>3780</var_all>
  <var_count>3780</var_count>
  <class_count>2</class_count>
  <class_labels type_id="opencv-matrix">
    <rows>1</rows>
    <cols>2</cols>
    <dt>i</dt>
    <data>
      0 1</data></class_labels>
  <sv_total>1</sv_total>
  <support_vectors>
    <_>
      -9.14489105e-02 -4.83661331e-02 -4.67785001e-02 -4.18614410e-02
      1.46162072e-02 1.08759269e-01 6.99290410e-02 -5.97207509e-02
      2.60351319e-02 -1.39171183e-01 -8.07652399e-02 -7.71235675e-02
      1.27885878e-01 3.33373770e-02 1.29774287e-01 -4.20427732e-02
      3.92082818e-02 -1.41825929e-01 6.97971955e-02 1.04829848e-01
      -2.34526351e-01 4.00327332e-02 1.17631517e-01 3.73913199e-02
      -1.63469780e-02 2.33506132e-02 1.74934357e-01 1.05538674e-01
      -4.29552719e-02 -9.70343277e-02 2.84033138e-02 1.02869079e-01
      1.40648754e-02 -5.09196967e-02 1.10321164e-01 1.00055046e-01
      -8.21915567e-02 -1.14069290e-01 4.54790741e-02 1.39854267e-01
      9.09790620e-02 1.67045072e-01 -4.78767417e-02 7.56832259e-03
      1.12560904e-02 4.44755368e-02 6.76276907e-02 4.43883985e-03
      1.68378845e-01 9.71030444e-02 7.40821958e-02 -6.44907877e-02
      -4.80066538e-02 6.50488362e-02 1.97506964e-01 -4.10938412e-02
      7.56250918e-02 2.27610040e-02 9.44190286e-03 3.36136259e-02
      -8.21887329e-02 9.84858945e-02 1.24263130e-01 -6.85262587e-03
      -9.50489789e-02 -3.18942182e-02 2.99932826e-02 -1.78713016e-02
      -8.23354721e-02 -5.84979169e-02 4.39621741e-03 1.32173980e-02
      2.21577957e-02 -8.57695192e-02 -9.69194174e-02 1.42062739e-01
      1.65803492e-01 7.50796199e-02 -1.41676784e-01 -1.11919865e-01
      -5.53835146e-02 2.81431600e-02 -1.27033040e-01 -2.90773869e-01
      -5.78854010e-02 -7.36170113e-02 7.49697536e-02 -1.68896973e-01
      -1.80906788e-01 -4.57042195e-02 1.14305928e-01 -1.05405197e-01
      6.33766055e-02 1.80335790e-01 2.22073141e-02 7.92750791e-02
      -8.28593448e-02 -1.42862156e-01 1.42822981e-01 -1.25392368e-02
      -1.41665330e-02 -1.06686644e-01 1.15388989e-01 -4.46945839e-02
      8.51878822e-02 -4.37818542e-02 -6.13746569e-02 -1.96333453e-02
      3.84974219e-02 -9.41390321e-02 -2.51421034e-02 2.55011097e-02
      -8.01217631e-02 1.13952182e-01 4.66094017e-02 -2.98272166e-02
      -9.51774940e-02 -2.20486447e-01 -7.63157755e-02 7.10894391e-02
      -2.75179297e-02 -2.03785151e-01 -2.55664764e-03 -2.33316584e-03
      -5.64162806e-02 -2.46444434e-01 -8.34404826e-02 -3.40022729e-03
      -1.03839837e-01 1.06904447e-01 -4.24721353e-02 5.25140651e-02
      8.70639235e-02 1.97344813e-02 -9.95016098e-02 -2.48494837e-02
      -1.15952089e-01 -5.81053495e-02 6.59503862e-02 -1.78028256e-01
      5.58117516e-02 -2.59220358e-02 -2.83542629e-02 -1.25201046e-02
      -3.72679681e-02 -3.10208518e-02 1.90822080e-01 1.53244302e-01
      2.33664196e-02 8.22670311e-02 5.65038212e-02 -2.13010963e-02
      -8.45472440e-02 -6.75378814e-02 -1.29051402e-01 -5.31370193e-03
      -4.12111506e-02 -2.61608437e-02 -3.02094668e-02 -1.32242730e-02
      -8.01775753e-02 -6.68235794e-02 -1.21029187e-02 2.22392958e-02
      1.47541821e-01 4.95896153e-02 -1.48171276e-01 1.28869250e-01
      4.30412926e-02 4.42455038e-02 -6.83525652e-02 -5.97050078e-02
      -1.43632755e-01 -2.19936922e-01 -1.01208545e-01 -1.26056477e-01
      5.29084215e-03 -9.87434834e-02 -3.25954668e-02 -2.86670309e-02
      -3.21577676e-02 1.17741421e-01 1.24391660e-01 1.11210153e-01
      1.07568592e-01 2.85538118e-02 -7.39880279e-03 1.22407421e-01
      -9.21887308e-02 -3.46158519e-02 1.37305260e-01 7.00522140e-02
      6.06359169e-02 -2.32784133e-02 -1.96453631e-01 -8.91206339e-02
      9.06018168e-02 -8.54519084e-02 -3.15473676e-02 3.11555881e-02
      -2.87788268e-02 -6.72170073e-02 -1.14431895e-01 -1.72737818e-02
      5.91697395e-02 7.12277889e-02 8.39868747e-03 -7.82525763e-02
      -4.66190390e-02 -2.41245136e-01 -3.15705091e-02 -1.51771144e-03
      3.94326169e-03 -4.00712825e-02 5.34072630e-02 -5.60707003e-02
      2.69504990e-02 -1.39891719e-02 -2.02380605e-02 9.47756767e-02
      1.74870435e-02 -5.30944914e-02 -1.31538376e-01 1.56676486e-01
      1.06740914e-01 -2.87821572e-02 -3.34497504e-02 -1.27988264e-01
      -6.54462725e-02 1.19139507e-01 1.25223044e-02 -2.05376938e-01
      8.41766887e-05 8.72841291e-03 -3.15531492e-02 5.70751466e-02
      -2.39178285e-01 6.91758543e-02 9.70768929e-02 1.27140090e-01
      2.34670821e-03 1.04835629e-01 8.90982226e-02 -6.85647279e-02
      -2.70813685e-02 -1.37001753e-01 -4.42204922e-02 1.51030095e-02
      -9.65800975e-03 -8.40254948e-02 2.93134563e-02 -3.04732379e-03
      -4.68482487e-02 -3.04602808e-03 -1.60772186e-02 6.23747148e-02
      1.58440351e-01 9.79316384e-02 -4.54602614e-02 -2.40930710e-02
      5.87910973e-02 -4.34244014e-02 -1.69682633e-02 -1.09993249e-01
      -8.62565264e-03 -3.08175455e-03 -8.52695629e-02 -1.26249045e-01
      -1.26731664e-01 -9.66558307e-02 2.48834416e-02 -1.84797987e-01
      -8.15303903e-03 6.75530732e-02 -2.35374589e-02 3.79513614e-02
      -8.77593160e-02 6.20642714e-02 1.04981586e-02 -1.18347406e-01
      -8.40081722e-02 -1.18351541e-01 2.50815917e-02 2.09799726e-02
      -1.22653060e-01 -2.50126064e-01 9.56806615e-02 -4.28904071e-02
      -1.28631756e-01 -2.61750072e-02 -3.49343456e-02 -3.47256986e-03
      -4.04360853e-02 1.85942482e-02 2.03466672e-03 -8.54449812e-03
      1.38457157e-02 -1.14843614e-01 4.64006141e-02 -4.62540686e-02
      -4.76387553e-02 4.49192636e-02 1.74477994e-01 -2.91693620e-02
      1.13754524e-02 2.44569336e-03 -1.92275211e-01 -1.01803847e-01
      -5.84154204e-02 4.27570045e-02 -8.69157016e-02 1.26386127e-02
      -7.15445429e-02 2.40927577e-01 -8.07767883e-02 -2.76724435e-02
      -1.43432081e-01 -1.43752277e-01 -7.45800212e-02 -9.50445235e-02
      2.68224813e-02 -1.05011642e-01 2.75165886e-01 -1.78246453e-01
      -1.47428766e-01 -5.83282560e-02 9.10449475e-02 -5.30657321e-02
      6.89009726e-02 1.76690638e-01 -1.32119074e-01 -7.64052346e-02
      -1.18532561e-01 -7.51757622e-02 -1.94387034e-01 -4.64661531e-02
      4.43638824e-02 4.00596932e-02 -3.09822913e-02 -1.10160947e-01
      -9.48094577e-02 4.04962227e-02 -4.02299464e-02 -9.60170329e-02
      -5.75121753e-02 -2.64713764e-02 9.23187647e-04 -1.28397737e-02
      -1.47143945e-01 3.60035561e-02 -1.47818923e-01 1.08688295e-01
      -3.59230451e-02 -8.76088217e-02 3.97295021e-02 3.61225009e-02
      -3.05395126e-02 -2.63867285e-02 -3.62084582e-02 2.47578491e-02
      -6.34430423e-02 -6.06656596e-02 -9.66537595e-02 -5.35701662e-02
      8.01727455e-03 -6.44653440e-02 -2.14312989e-02 -2.12166887e-02
      1.22060776e-01 -1.01457052e-02 -3.55345793e-02 -6.41835406e-02
      -5.23418151e-02 1.87048484e-02 3.76482634e-03 5.22347800e-02
      -3.86152044e-02 -8.66170451e-02 -4.12691720e-02 -7.23025501e-02
      -1.08484223e-01 1.97995603e-02 -6.64960146e-02 -1.50681466e-01
      -3.61401029e-02 8.34084768e-03 4.04974408e-02 -9.95153785e-02
      -4.95387726e-02 -6.73406431e-03 -2.56645828e-02 -1.30527943e-01
      -1.00610375e-01 -1.48516357e-01 -4.55421805e-02 -1.21937424e-01
      -8.72376636e-02 -1.18575744e-01 -1.12809494e-01 -4.02336344e-02
      1.06906407e-01 9.74067897e-02 1.03462264e-01 6.17494360e-02
      -1.89487785e-02 -1.18126035e-01 -1.56109408e-01 -1.08486280e-01
      -6.50787130e-02 3.78569886e-02 1.42879803e-02 -1.41598836e-01
      2.51260716e-02 5.51894307e-03 -6.97436482e-02 3.39647979e-02
      -5.02123646e-02 -1.23776637e-01 -9.77726132e-02 1.61379017e-02
      -7.87332430e-02 -6.10523596e-02 -1.78221613e-01 -1.79927155e-01
      -4.55103256e-02 -1.84956998e-01 -1.08866304e-01 -1.07417352e-01
      3.42255980e-02 -3.23049352e-02 -8.14455934e-03 -1.06933815e-02
      5.30781522e-02 5.27298488e-02 -6.76294835e-03 -4.82761450e-02
      6.62811622e-02 8.28400180e-02 -1.60555035e-01 6.55182824e-02
      1.19155474e-01 2.49819811e-02 4.82801273e-02 1.24342412e-01
      -1.05290994e-01 -3.43640111e-02 -6.21679984e-02 7.68062426e-03
      1.21609464e-01 1.90808848e-01 -1.14541411e-01 -1.30865976e-01
      -9.51910242e-02 -1.33124471e-01 2.64249481e-02 1.96806431e-01
      -4.73449714e-02 -3.59759815e-02 8.80244374e-02 -6.18147291e-02
      -2.62219757e-02 -9.79405791e-02 -1.34742230e-01 7.85797182e-03
      6.01000451e-02 -5.28554246e-02 -5.61854392e-02 -2.29091495e-02
      -4.15493771e-02 5.28179854e-02 1.01087885e-02 8.61318409e-02
      -1.13559991e-01 -1.39082298e-01 -1.16643585e-01 1.42793849e-01
      2.02650443e-01 -4.81839888e-02 -7.20767602e-02 -2.26126947e-02
      7.71268010e-02 2.89923083e-02 7.59966597e-02 6.69448916e-03
      3.80270905e-03 9.85806435e-02 -1.24907255e-01 3.92341986e-02
      -6.09158576e-02 -1.52823729e-02 -8.74357074e-02 -5.43058254e-02
      -1.50253147e-01 -5.58872074e-02 8.74914881e-03 -1.26840919e-02
      2.61310209e-02 4.76343893e-02 5.54795116e-02 5.31753488e-02
      -1.94373596e-02 -1.60829544e-01 -3.21726017e-02 1.08310387e-01
      4.87521030e-02 -9.27668810e-02 -7.25352466e-02 -4.42432798e-02
      -3.70237976e-02 5.00977226e-02 -2.29757518e-01 -9.87201035e-02
      4.55990247e-02 7.84099773e-02 -1.56325385e-01 -1.35798439e-01
      9.19467509e-02 -9.13380459e-02 1.03006922e-01 -1.66027814e-01
      -9.13724117e-03 7.55235180e-02 -4.56438325e-02 -1.74842943e-02
      -2.43467223e-02 -1.20521165e-01 4.03372869e-02 1.62851196e-02
      -1.86173841e-01 7.04693515e-03 4.82250378e-02 -1.40558369e-02
      -2.44288594e-01 -1.83196753e-01 -2.62170248e-02 -1.06133021e-01
      9.82751977e-03 -1.47659346e-01 -8.28134194e-02 1.74125105e-01
      -1.36990575e-02 1.29707783e-01 7.52377436e-02 1.97276890e-01
      -2.03084592e-02 1.55307934e-01 -2.66283266e-02 -4.11099866e-02
      -2.94048321e-02 -1.26250135e-02 -5.95650859e-02 1.62679236e-02
      -8.35563093e-02 -9.56631303e-02 -4.35102619e-02 -9.84983742e-02
      -2.31068358e-02 -9.02378708e-02 -3.12393177e-02 -1.25363972e-02
      3.04391142e-02 2.14864120e-01 -2.41471380e-02 1.88254908e-01
      -7.63888061e-02 -1.06219640e-02 -8.02133884e-03 -7.06780702e-02
      -9.18511078e-02 -6.67483732e-02 -1.69542301e-02 -6.71515986e-02
      1.76318213e-02 -9.39108431e-02 -1.09601483e-01 -2.14367598e-01
      1.66266605e-01 2.31388155e-02 8.52876008e-02 4.88272728e-03
      2.70284861e-02 9.86987054e-02 -5.50382361e-02 2.32136138e-02
      8.68669525e-02 8.20998698e-02 -2.01215655e-01 -1.18334860e-01
      4.37828666e-03 4.29396145e-02 -7.35672482e-04 -1.49246961e-01
      -6.17945120e-02 5.88165270e-03 9.50442404e-02 -6.88009709e-02
      3.85985039e-02 1.01166636e-01 7.40482360e-02 1.59287289e-01
      -1.52104020e-01 -2.47295704e-02 1.77635439e-02 2.18862835e-02
      -8.13805237e-02 -1.30149677e-01 -1.00234570e-02 4.45867702e-02
      1.46255806e-01 -9.55822319e-02 7.68302605e-02 5.74479662e-02
      1.01731166e-01 -1.11520693e-01 -7.78394472e-03 1.71999604e-01
      6.16339557e-02 1.07641272e-01 -4.17423733e-02 -8.25263262e-02
      1.00441827e-02 -9.72977653e-02 -2.97329705e-02 -1.70505438e-02
      5.33467904e-02 5.15265251e-03 1.76817119e-01 -6.15808107e-02
      -2.16541290e-02 -4.15601693e-02 1.32948652e-01 8.58009234e-03
      9.31703672e-03 1.17106378e-01 1.03162959e-01 1.39089853e-01
      -3.47995833e-02 4.23752442e-02 5.74034452e-02 -8.14653188e-02
      -1.61187962e-01 -3.07878945e-02 4.38167825e-02 -1.13483988e-01
      1.10066473e-01 -9.22101885e-02 3.26288268e-02 5.64864092e-02
      2.32448094e-02 -3.43727507e-02 -8.45233947e-02 -2.61111464e-03
      -5.70059866e-02 1.06723815e-01 5.50797470e-02 1.39740631e-02
      2.30796151e-02 -1.22201284e-02 -2.36639231e-02 -6.31947890e-02
      3.25880535e-02 -4.56396714e-02 5.97014353e-02 3.05086058e-02
      -5.53175993e-03 -1.41626941e-02 -1.20253429e-01 -1.43137112e-01
      1.03177413e-01 1.05106346e-01 -6.99738264e-02 1.07181624e-01
      1.04598604e-01 7.28023052e-02 3.93385328e-02 -1.20192438e-01
      -1.74503356e-01 -9.97852609e-02 -1.77726410e-02 2.01336853e-02
      1.99138857e-02 1.61316112e-01 4.46220338e-02 6.58436120e-02
      -9.91854724e-03 5.54399043e-02 7.36919269e-02 1.13263756e-01
      -7.09030628e-02 9.55835432e-02 -4.55304887e-03 4.08334956e-02
      -9.33470018e-03 -2.78043114e-02 -8.88234302e-02 -1.61236167e-01
      2.81905271e-02 -7.34795704e-02 2.11934820e-02 -6.46721050e-02
      6.64860476e-03 -4.09012772e-02 -4.09578681e-02 1.34660691e-01
      4.92994487e-02 3.42592485e-02 6.73204958e-02 1.69869930e-01
      2.23207712e-01 1.92299560e-01 7.14598000e-02 -1.76232308e-01
      -9.79316086e-02 -2.89452784e-02 -1.00261882e-01 2.25218348e-02
      -2.15240903e-02 -1.18235849e-01 -9.61186886e-02 -3.96836596e-03
      1.51217477e-02 3.28127071e-02 2.33722385e-02 6.73761815e-02
      6.46488816e-02 7.86662772e-02 9.63959470e-02 -5.17357960e-02
      7.36036301e-02 -1.04796432e-01 -3.74582503e-03 -3.55547182e-02
      5.68285659e-02 3.60957012e-02 1.86880641e-02 -8.69955793e-02
      -7.34536126e-02 -4.07847464e-02 -7.00928494e-02 1.27369732e-01
      7.23060817e-02 6.51682913e-02 1.37846932e-01 4.89549749e-02
      6.03758879e-02 1.23858787e-02 6.64790571e-02 3.08551802e-03
      1.57415196e-01 1.10164769e-01 -2.05722153e-02 -7.96461776e-02
      -1.03637883e-02 -3.82583053e-03 -2.54791602e-03 3.51725309e-03
      -9.66271013e-02 -1.26527846e-02 1.86286315e-01 7.25024343e-02
      4.03666347e-02 7.32151344e-02 -5.76686934e-02 3.40868235e-02
      1.33382464e-02 -1.05809823e-01 -6.08327687e-02 6.93819150e-02
      8.34498554e-02 -4.00440246e-02 6.67681172e-02 9.67008993e-02
      1.34781465e-01 -6.53318092e-02 -5.79166599e-02 2.79898066e-02
      6.30911291e-02 -1.12083014e-02 -5.27882427e-02 -2.81844055e-03
      -7.99743459e-02 -4.11063246e-02 -3.36014442e-02 -7.54428981e-03
      5.28513920e-03 -8.17729756e-02 1.43181726e-01 1.32372677e-01
      1.20108575e-02 -3.76126841e-02 3.81556004e-02 -4.91423979e-02
      -7.83989672e-03 -4.47342619e-02 5.71231022e-02 1.07435696e-01
      -1.33191850e-02 7.85030425e-02 -1.85286999e-02 -3.80641595e-02
      5.07443175e-02 1.51732760e-02 4.56095301e-02 1.28837302e-01
      6.51502460e-02 7.29519816e-04 -4.79827933e-02 -2.58355856e-01
      2.61450391e-02 7.06496760e-02 7.94544965e-02 1.45385880e-02
      -2.75046136e-02 1.07579723e-01 1.00817055e-01 2.82387249e-02
      -1.54896092e-03 6.95683658e-02 1.38757750e-01 5.02479784e-02
      -1.13072239e-01 2.01962180e-02 -1.38944080e-02 -8.82659480e-02
      -4.15456183e-02 -1.83365360e-01 8.83056670e-02 1.54350892e-01
      -7.39202276e-02 -7.26066530e-03 5.58927879e-02 1.13737278e-01
      -5.06763533e-02 -5.67564368e-03 -1.72632858e-01 1.25697553e-01
      -8.77681971e-02 3.85839641e-02 1.38718877e-02 -3.30869332e-02
      2.24180873e-02 -3.40131186e-02 -2.95514353e-02 -1.04032956e-01
      -1.52274473e-02 -2.30333969e-01 3.32312509e-02 -7.76395202e-02
      -1.47463500e-01 4.09773439e-02 -4.28405441e-02 1.13220081e-01
      -1.52571693e-01 9.73699894e-03 -3.68695632e-02 -6.33189629e-04
      7.63405534e-03 6.70220819e-04 6.92351758e-02 -2.65236050e-02
      1.18843883e-01 2.13766820e-04 -4.33242545e-02 -1.99594293e-02
      3.35269794e-02 -4.41156775e-02 -1.69162080e-01 -5.86941428e-02
      -3.86931896e-02 -2.59752832e-02 -2.35364120e-02 -4.95155863e-02
      -2.42140874e-01 4.08435017e-02 4.42969613e-02 -4.65674006e-04
      7.28142709e-02 7.68541917e-02 -8.05757642e-02 -1.92006510e-02
      -1.60737727e-02 -1.55467704e-01 7.03082979e-02 -2.78213546e-02
      -1.60995677e-01 -6.83840737e-02 -7.10757300e-02 4.51381169e-02
      3.32819596e-02 -5.02843820e-02 7.51835713e-03 1.37556195e-01
      -5.17383851e-02 -1.10592946e-01 1.10667400e-01 9.27609205e-02
      -6.01668283e-02 -7.03402758e-02 -3.38061452e-02 -5.97295277e-02
      -2.47040451e-01 -7.79901966e-02 -6.98396266e-02 4.95951585e-02
      1.72589198e-02 -1.27878174e-01 1.30552473e-02 1.18280448e-01
      -1.30817637e-01 -1.63539991e-01 -1.80856809e-02 8.89919400e-02
      2.03080829e-02 -3.92067656e-02 -9.32631120e-02 -2.12033525e-01
      5.16613983e-02 -1.51393861e-01 -6.21471927e-02 -6.83008581e-02
      -5.52234938e-04 1.20908625e-01 1.24665521e-01 -2.76351068e-02
      -9.38709080e-02 -6.82386383e-02 -1.55538663e-01 -1.03220029e-03
      -4.55336682e-02 -1.67174358e-02 1.56838633e-02 5.74544072e-02
      -6.27936125e-02 -1.34057298e-01 9.34879668e-03 7.71537647e-02
      -7.78618082e-02 1.57021955e-01 1.01031899e-01 1.04097510e-02
      4.61007804e-02 -5.20753500e-04 -1.51269630e-01 4.30221949e-03
      -1.92191273e-01 -1.32974923e-01 -6.36305958e-02 -2.05698311e-01
      -8.78207013e-02 -6.20699339e-02 -4.44797166e-02 -4.67112754e-03
      -4.21370566e-03 -1.71281710e-01 2.07277890e-02 8.44998136e-02
      3.51829417e-02 9.88629833e-02 2.07334965e-01 4.71507162e-02
      4.53216396e-02 1.52345195e-01 9.08378884e-02 -4.73960079e-02
      -6.24530688e-02 -1.74470261e-01 3.01906113e-02 3.18317935e-02
      -1.43428124e-03 -2.09237412e-02 1.45908058e-01 -8.30363855e-02
      -7.48814270e-02 -1.46145532e-02 -3.22126485e-02 -7.20815733e-02
      3.87599729e-02 2.82985028e-02 -9.04994234e-02 -1.19885251e-01
      -3.97222973e-02 -1.52833670e-01 2.93257311e-02 1.42607531e-02
      5.32381497e-02 3.14607210e-02 7.18339682e-02 9.24552232e-02
      4.56870580e-03 -7.22709373e-02 8.93275589e-02 -7.34049752e-02
      3.56953256e-02 7.64517710e-02 -5.27815446e-02 -6.07906245e-02
      -2.03915760e-02 -4.20465395e-02 1.07384818e-02 -1.23684704e-01
      5.59029467e-02 -2.73674224e-02 -2.76998337e-02 -7.28374273e-02
      -1.00574456e-01 -1.07871108e-02 5.39781973e-02 6.90570893e-03
      -5.25563434e-02 8.29073042e-02 9.99365095e-03 2.57563777e-02
      -3.83532532e-02 -2.43268199e-02 8.15460235e-02 9.69101489e-02
      -3.28624505e-03 1.07350491e-01 2.63868477e-02 -3.01951654e-02
      -3.17118391e-02 7.19337091e-02 -3.37766409e-02 -3.79430875e-02
      7.01663569e-02 6.21389039e-02 -1.11616127e-01 7.95197785e-02
      -3.65330987e-02 -6.37270138e-02 -1.23266324e-01 -1.17963359e-01
      6.72061741e-02 1.63485989e-01 3.26497033e-02 -6.33761063e-02
      -8.21891725e-02 -3.36993448e-02 -4.01719175e-02 -7.04970285e-02
      2.06067413e-02 6.74144924e-02 3.39873843e-02 -4.39149141e-03
      -5.75883426e-02 -3.24782394e-02 -1.21258855e-01 -9.96863917e-02
      4.41613831e-02 4.85666804e-02 -1.92122281e-01 -6.75786585e-02
      -8.01861286e-03 7.97727406e-02 -1.79020166e-01 -2.36353487e-01
      -1.11717070e-02 -6.31522015e-03 7.68005177e-02 -1.33507743e-01
      -1.59410596e-01 6.82936311e-02 -2.08994616e-02 -7.68439472e-02
      -9.16553065e-02 -1.90338269e-02 -2.47729216e-02 4.14277874e-02
      1.13061294e-01 -1.31580174e-01 9.67799798e-02 2.08913639e-01
      -2.22414285e-02 -1.03402287e-01 -2.87585761e-02 -6.71168417e-02
      7.06856027e-02 -4.34990637e-02 -2.20808864e-01 1.27478331e-01
      -5.13521060e-02 -9.44298692e-03 3.16122472e-02 2.05253243e-01
      1.37521237e-01 1.21292621e-01 1.28192781e-02 3.59758139e-02
      1.27238125e-01 -3.51432115e-02 -1.27514482e-01 -1.00514472e-01
      -4.04884014e-03 -3.47862765e-02 1.43159190e-02 -1.80135280e-01
      -1.03580549e-01 7.26386085e-02 1.66576530e-03 6.43297359e-02
      -4.77002524e-02 -8.29549041e-03 3.69038470e-02 1.06171556e-02
      -1.54884234e-02 -1.44295096e-01 -2.01871861e-02 9.26261395e-02
      1.62652001e-01 1.98148545e-02 -4.73743398e-03 -2.31780987e-02
      4.69086580e-02 -1.84548609e-02 -1.00736059e-02 1.06100835e-01
      4.93826121e-02 -4.83999513e-02 5.65666854e-02 4.22457568e-02
      -3.06532811e-02 1.14002131e-01 -4.33465578e-02 -1.99151356e-04
      7.95421675e-02 3.36461142e-02 1.22539303e-03 -2.22131591e-02
      -1.33517355e-01 -4.74488847e-02 1.89952046e-01 -4.20269966e-02
      2.09487621e-02 1.09570533e-01 1.06646992e-01 1.78898215e-01
      1.94397252e-02 1.25506967e-02 -1.74690932e-02 2.27343321e-01
      1.60624564e-01 1.23889893e-01 1.29997628e-02 -2.21953318e-01
      -1.31512955e-01 -4.82418798e-02 -6.21771999e-02 -1.09549090e-01
      4.86767814e-02 -3.19648720e-02 -2.52872444e-04 -3.91670913e-02
      1.76085845e-01 1.96456373e-01 4.47601564e-02 1.25362854e-02
      -6.79466724e-02 8.54807254e-03 -2.13389277e-01 -1.22309372e-01
      4.29960787e-02 1.52232662e-01 2.12552935e-01 2.99593452e-02
      6.67115822e-02 -2.00788379e-01 -1.03286386e-01 -1.82090074e-01
      -1.53381482e-01 2.56546475e-02 3.50222811e-02 1.52676061e-01
      1.68440327e-01 2.98600644e-01 7.57128224e-02 -6.97068349e-02
      -2.21755743e-01 -1.08979903e-01 -1.38885267e-02 2.10278764e-01
      3.85387927e-01 1.19558126e-01 1.99364349e-01 -1.06018513e-01
      -1.04784518e-01 8.94057751e-02 4.07578908e-02 1.04302257e-01
      -1.56338692e-01 -6.64899275e-02 1.13626420e-01 7.88199306e-02
      -9.77931395e-02 -8.39090794e-02 6.27534762e-02 -6.24045134e-02
      -8.13876539e-02 -2.01325640e-01 2.67573111e-02 1.24495551e-01
      -9.82861035e-03 -5.06729074e-02 -4.50132862e-02 1.78432882e-01
      7.60736987e-02 -1.12753406e-01 6.95511997e-02 1.79791749e-01
      1.06358208e-01 1.64865926e-02 -1.67321324e-01 -8.69442448e-02
      1.61187887e-01 1.97608858e-01 1.11279428e-01 1.06383432e-02
      1.98325098e-01 2.42943823e-01 2.26640627e-01 2.35805772e-02
      7.61002675e-02 1.14257440e-01 1.57870308e-01 -1.76699236e-02
      -5.55049255e-02 3.63365531e-01 2.36849159e-01 -4.02750671e-02
      -3.31554636e-02 -2.23715603e-02 6.59808740e-02 1.24139704e-01
      -1.27304927e-01 -9.96111333e-02 2.10409999e-01 5.73217694e-04
      -1.04200192e-01 -1.68823004e-01 -1.38957486e-01 -2.43361831e-01
      -1.16112635e-01 -1.58912092e-01 -2.76433080e-02 4.92520362e-01
      3.99150729e-01 2.03378722e-01 -3.44101600e-02 -1.87406372e-02
      8.63890275e-02 1.32424623e-01 -1.00096911e-01 2.85328161e-02
      2.66254544e-01 4.81299870e-02 -1.27138898e-01 -3.33924592e-01
      -1.55415803e-01 -8.23170021e-02 -9.33614522e-02 -9.94770527e-02
      7.35829845e-02 2.72134244e-01 3.52347344e-02 2.96808360e-03
      -2.71103326e-02 6.07271232e-02 7.23784864e-02 1.05922893e-01
      1.26957625e-01 2.78569218e-02 1.18477523e-01 4.45573032e-02
      -1.14931010e-01 -7.83104599e-02 -1.33723125e-01 1.89017691e-02
      4.67676818e-02 1.28702372e-01 1.28458366e-01 1.95462838e-01
      -4.56330366e-02 -1.31375268e-01 -2.34532133e-01 -1.08219519e-01
      -5.10273427e-02 -3.48722260e-03 6.66765422e-02 4.80993697e-03
      6.91163689e-02 -1.10249601e-01 -1.70085728e-01 -2.72228539e-01
      -2.63475657e-01 -1.15701810e-01 1.51757047e-01 -2.51006000e-02
      9.39229950e-02 9.33662206e-02 -9.98118985e-03 -8.63330066e-02
      -2.68104076e-02 -4.10107337e-02 -1.02745093e-01 1.28362522e-01
      1.26523405e-01 1.92605436e-01 1.12536624e-01 -1.55374929e-01
      -1.56042606e-01 2.42676232e-02 -3.00048776e-02 -2.05376968e-01
      3.20723020e-02 1.19693205e-01 1.88552309e-02 1.48549393e-01
      -9.63524580e-02 -1.22520961e-01 -1.30917206e-01 5.49698845e-02
      4.32420969e-02 2.07032785e-01 -1.98340472e-02 7.81911239e-02
      9.31769907e-02 -7.04882592e-02 -2.00053334e-01 -1.02407143e-01
      6.52524903e-02 -3.55531760e-02 1.23877786e-01 -4.09770980e-02
      1.19085304e-01 7.58623630e-02 -1.19969621e-02 -9.75581631e-02
      -2.15321239e-02 -9.79631674e-03 -6.74981251e-02 2.13191822e-01
      1.58865049e-01 -1.13573456e-02 3.65100950e-02 4.00690846e-02
      -5.05505428e-02 -6.56632185e-02 1.14042787e-02 -3.81058687e-03
      1.75349325e-01 -3.13177072e-02 4.38159890e-02 9.63624418e-02
      -4.99377549e-02 -1.28267512e-01 -1.96675174e-02 9.60427802e-03
      -1.06590912e-02 8.07661489e-02 -4.94739078e-02 -2.62912344e-02
      3.15851357e-05 -1.16471641e-01 -1.94187939e-01 -7.67897591e-02
      -7.29020536e-02 -4.81705889e-02 2.30232179e-01 7.37077510e-03
      4.73689381e-03 6.22222153e-03 -9.98985991e-02 -7.35268602e-03
      1.01487964e-01 1.52095065e-01 1.81194451e-02 1.88937038e-01
      -6.44267276e-02 4.91700135e-02 6.97060525e-02 -1.49994746e-01
      -8.29940755e-03 1.71904229e-02 1.47511229e-01 -7.26845488e-02
      9.62148458e-02 -9.91756618e-02 2.41724886e-02 4.47324617e-03
      -1.28095254e-01 -9.17207971e-02 -5.60022183e-02 8.03814530e-02
      -2.60702185e-02 1.11044258e-01 6.42702654e-02 -1.12335823e-01
      4.79610153e-02 -6.60329163e-02 -4.98303808e-02 -1.18490450e-01
      -1.43027544e-01 -1.76500797e-01 2.16698796e-01 2.12648138e-02
      4.42418270e-02 -1.06547037e-02 -4.47701998e-02 -6.64021894e-02
      -1.70018956e-01 -5.39292879e-02 -5.37361391e-02 5.65932542e-02
      -1.30930722e-01 -1.38866648e-01 -1.45843238e-01 5.30936904e-02
      1.34674180e-02 -6.56483546e-02 -9.12673697e-02 -6.13099523e-02
      8.60485656e-04 -7.15586022e-02 1.62012186e-02 8.55477303e-02
      6.80797035e-03 -1.94807947e-01 -1.64748058e-01 -1.23541981e-01
      -1.29811391e-01 2.10108832e-01 -8.18475932e-02 -4.30192426e-02
      1.44536301e-01 1.27388716e-01 -1.30293608e-01 -2.23157972e-01
      -1.94632798e-01 -7.08945990e-02 1.11670442e-01 1.45283323e-02
      -1.25390068e-01 -1.41472332e-02 1.09865114e-01 1.21596390e-02
      1.94493383e-02 -1.11272987e-02 -1.37688085e-01 -2.33040616e-01
      -2.08673090e-01 -2.28985809e-02 2.74328428e-04 -1.40110198e-02
      -1.46357283e-01 1.75957475e-02 -2.69042235e-02 -2.19083786e-01
      -5.71348611e-03 -2.25822646e-02 -2.02120352e-03 2.01419890e-01
      1.59433633e-01 -8.30162764e-02 -9.95616987e-02 -1.72681641e-02
      3.11645642e-02 4.44848789e-03 6.70164749e-02 2.81685710e-01
      1.65441513e-01 -9.89435986e-03 5.88397942e-02 -9.54319388e-02
      2.49918979e-02 3.43551822e-02 6.18582144e-02 9.01150703e-02
      3.04536130e-02 -2.69614942e-02 -7.42477626e-02 -1.04199141e-01
      -4.88971807e-02 6.26616459e-03 -7.04839453e-02 1.46275550e-01
      5.83509356e-02 -8.48536491e-02 -1.54247254e-01 -1.23269349e-01
      1.38334846e-02 -1.21688498e-02 4.87654768e-02 -1.02337874e-01
      -4.21765260e-03 -8.73314887e-02 2.48035580e-01 1.85274765e-01
      1.46589518e-01 7.02640861e-02 -5.99263757e-02 3.08490619e-02
      -1.19044915e-01 8.30423757e-02 2.80915089e-02 3.09393238e-02
      3.23140100e-02 6.40986264e-02 1.48704052e-01 7.62549341e-02
      2.49768227e-01 -1.26903048e-02 4.79490124e-02 -5.82025684e-02
      -6.18352331e-02 -9.63396654e-02 4.21160087e-03 9.20761898e-02
      -2.65601184e-02 5.07196179e-03 8.85038450e-02 -6.15758523e-02
      -3.49071696e-02 -1.43385723e-01 -1.92553680e-02 -1.29837930e-01
      -1.36816576e-01 -1.49918020e-01 -8.79105777e-02 -1.33357242e-01
      -7.17743412e-02 -1.02932610e-01 2.30196696e-02 7.96963125e-02
      -4.61207842e-03 2.49704331e-01 1.84288055e-01 2.12328553e-01
      1.16931446e-01 1.12765647e-01 -5.57057485e-02 -1.76160187e-01
      -2.34134272e-01 -7.27730840e-02 -2.04333346e-02 1.39348105e-01
      6.69499561e-02 -7.80869946e-02 -2.49697012e-04 -1.42002359e-01
      4.01567016e-03 2.19913870e-02 4.15076464e-02 -6.59139231e-02
      -1.40378982e-01 2.01290444e-04 -6.26767650e-02 3.43316793e-02
      4.97139730e-02 -6.88980967e-02 -1.75012246e-01 2.10265559e-03
      -1.03959991e-02 4.56320867e-02 2.16381624e-02 3.66286449e-02
      1.36893522e-02 -4.42517921e-02 -4.03872691e-02 -9.49795321e-02
      1.35193288e-01 6.80696918e-04 3.00072730e-02 3.81891355e-02
      4.62994073e-03 -6.50390387e-02 -6.40594363e-02 -5.79873472e-02
      -6.61572739e-02 3.48917805e-02 -7.31977001e-02 1.64585486e-02
      -1.79910455e-02 -7.74812177e-02 -2.13279188e-01 -1.17023662e-01
      -1.04672194e-01 -1.04635015e-01 4.09864411e-02 -4.78733182e-02
      -9.76802111e-02 3.38049866e-02 2.05739662e-02 -3.42719778e-02
      -2.32495647e-02 -1.45267453e-02 1.14261739e-01 1.03501581e-01
      -5.64203598e-02 -8.17291960e-02 7.09407032e-02 1.78922862e-02
      -1.50813520e-01 6.93678185e-02 -9.49755237e-02 -1.44336551e-01
      -3.79363224e-02 4.75983843e-02 -2.41772309e-02 -2.72050500e-02
      -1.19546112e-02 -9.45143104e-02 -1.34922117e-01 4.34836224e-02
      -1.15759052e-01 7.34285861e-02 -5.07185496e-02 -7.67669231e-02
      -1.04397233e-03 7.89872855e-02 -8.33292827e-02 3.43359858e-02
      4.24674489e-02 6.86599314e-02 -8.23077708e-02 1.07241809e-01
      1.45025393e-02 1.23974375e-01 -7.60538802e-02 5.11092432e-02
      1.37942016e-01 1.65525153e-02 -7.23559409e-02 -7.62107596e-02
      1.43383034e-02 7.54991025e-02 -1.35492980e-02 -9.63968486e-02
      -5.84260896e-02 1.08048946e-01 -4.45041619e-02 -8.93894397e-03
      -8.56420323e-02 1.14291720e-01 7.34251738e-02 3.38057838e-02
      -1.71535507e-01 1.56422444e-02 7.99137354e-02 -6.62685409e-02
      -7.94425458e-02 -1.37064368e-01 1.34358620e-02 3.88291329e-02
      1.11963963e-02 -1.59152791e-01 -7.89166465e-02 -2.07411367e-02
      7.75976852e-02 -1.29201829e-01 -9.29822475e-02 6.95628896e-02
      1.22570163e-02 1.59743100e-01 -4.06750292e-02 2.55561303e-02
      1.05764732e-01 -6.29534945e-03 -6.97567612e-02 -8.88316706e-02
      1.55869648e-01 5.76965623e-02 9.09328908e-02 -5.83671778e-02
      -4.56805155e-02 4.22288552e-02 1.37016043e-01 -1.16267160e-01
      -4.62927930e-02 9.13676843e-02 3.41709666e-02 9.10178497e-02
      -1.20875902e-01 -7.83433914e-02 -3.79958786e-02 1.43454760e-01
      -1.66046321e-01 -1.82644650e-01 1.58695370e-01 -3.83974314e-02
      9.14774835e-02 -6.99727982e-02 -7.30493665e-02 -4.91406545e-02
      -1.44274533e-01 5.72407804e-02 1.31738752e-01 2.86970854e-01
      1.79698661e-01 4.07197848e-02 4.14219452e-03 2.84678675e-03
      -1.95555374e-01 1.36100039e-01 1.89819887e-01 1.94360375e-01
      2.32950553e-01 7.45230392e-02 2.44331677e-02 2.40180239e-01
      -1.72319505e-02 -1.02072895e-01 -1.40120745e-01 -7.50597045e-02
      -4.60926108e-02 1.11730166e-01 1.12704195e-01 2.69533932e-01
      1.44023135e-01 3.14769857e-02 -2.99463898e-01 1.77094918e-02
      2.00465741e-03 4.43772748e-02 1.52901709e-01 1.14749908e-01
      1.73513904e-01 2.99894273e-01 2.24786192e-01 5.18738776e-02
      1.65325299e-01 1.63731411e-01 1.38987988e-01 -1.09180082e-02
      -1.13972053e-01 -1.39953285e-01 2.13708878e-01 1.16234899e-01
      6.11797683e-02 -1.25311553e-01 1.09124392e-01 1.42414242e-01
      4.74084467e-02 -2.02392086e-01 1.87123604e-02 2.21466452e-01
      2.67916262e-01 -1.44092038e-01 1.72798797e-01 4.88514341e-02
      8.61941203e-02 1.04318842e-01 -8.05883184e-02 4.09516320e-02
      1.94219515e-01 8.54986683e-02 4.09850143e-02 -1.21430002e-01
      1.00362323e-01 2.48654246e-01 -1.62590705e-02 -2.60421753e-01
      -1.43795060e-02 1.64801359e-01 1.40386075e-01 -7.52655640e-02
      -2.18547076e-01 4.26446497e-01 4.02082533e-01 2.26484895e-01
      -1.83435052e-03 1.43218473e-01 1.86366588e-01 2.76454777e-01
      -2.73391038e-01 -3.19597691e-01 9.47787054e-03 -9.93100032e-02
      -1.73136517e-01 -2.73392171e-01 -1.86114967e-01 -5.74071743e-02
      -1.48265228e-01 -4.33853149e-01 -2.53336579e-01 9.23179463e-02
      1.70317873e-01 -3.17131542e-02 5.01407124e-02 2.34002590e-01
      3.67834687e-01 4.08660769e-01 -2.36531779e-01 -3.03575605e-01
      -1.44352540e-01 -2.07102820e-01 -2.78899401e-01 -2.96142071e-01
      -1.86011672e-01 -2.01963931e-01 -8.57425332e-02 -3.86608899e-01
      2.86428500e-02 1.16859235e-01 -4.60201763e-02 -6.03134520e-02
      -1.26916125e-01 2.42393557e-02 1.89380581e-03 4.39866371e-02
      3.12010925e-02 -1.65051714e-01 4.51011732e-02 -2.30711743e-01
      -1.60969138e-01 -2.44615301e-01 -1.62814856e-01 -1.24260470e-01
      8.05113763e-02 -1.45808175e-01 1.65620178e-01 1.34901196e-01
      -3.43411416e-02 -5.35678267e-02 -2.37985820e-01 -9.45941061e-02
      -1.04708485e-01 7.45322034e-02 2.02539209e-02 -8.50403588e-03
      4.57219221e-02 -1.75557896e-01 -3.07452023e-01 -2.75055796e-01
      -1.27870098e-01 -2.89205551e-01 -3.73463593e-02 -1.94332264e-02
      -2.90822297e-01 1.38442088e-02 -9.06829759e-02 -4.38277721e-02
      -1.50001749e-01 5.95691614e-02 7.64388740e-02 1.13872059e-01
      -1.97538868e-01 -2.00085640e-01 1.00746438e-01 3.83134112e-02
      8.48091468e-02 -4.88141552e-02 1.29209071e-01 5.74577712e-02
      -3.18974592e-02 -2.68582910e-01 -1.57999188e-01 3.16780582e-02
      -1.15506751e-02 3.71786170e-02 -6.88461885e-02 8.70897099e-02
      2.05788855e-03 1.97050627e-02 -1.33631840e-01 -1.57427236e-01
      4.06584702e-02 8.85282978e-02 1.15009345e-01 -3.37340645e-02
      3.30734588e-02 6.95911497e-02 8.99340138e-02 -8.67264345e-02
      -2.34690592e-01 -3.17515358e-02 -3.79427746e-02 6.64715096e-02
      1.29051015e-01 6.27445057e-02 -5.81419021e-02 9.21813864e-03
      -2.44936287e-01 -1.17417134e-01 -2.38482311e-01 -2.02620208e-01
      -9.58713889e-02 8.37230086e-02 8.02312866e-02 -2.26424597e-02
      8.87965634e-02 -1.24491438e-01 -1.41737789e-01 -1.48136960e-02
      4.00132537e-02 4.05001938e-02 1.02558270e-01 7.27044605e-03
      5.81436232e-03 -8.92162845e-02 -1.60610810e-01 -1.36779889e-01
      -2.91858334e-02 -5.62335132e-03 -3.80410515e-02 1.02941636e-02
      2.62535121e-02 -2.12221090e-02 -4.71706465e-02 -8.37623104e-02
      -3.23461369e-02 -1.54028475e-01 -1.57097653e-01 -1.20131120e-01
      4.83236425e-02 4.87881452e-02 -2.72172224e-02 2.54397583e-03
      -6.12892248e-02 -1.79004781e-02 7.94982724e-03 -1.00758098e-01
      -1.33358911e-01 -1.28917351e-01 -9.07154158e-02 -9.61910337e-02
      1.43781230e-01 -3.51851135e-02 -4.35267724e-02 4.06661071e-02
      -1.30355628e-02 -2.87480019e-02 -2.44540051e-02 -5.51087447e-02
      -1.02069184e-01 9.01622027e-02 4.59924946e-03 1.14750611e-02
      1.22375965e-01 -6.41545281e-02 -9.68594849e-02 -1.40513361e-01
      -3.63692641e-02 -7.48340115e-02 -3.93867753e-02 -9.31301111e-05
      3.72707583e-02 7.21148849e-02 -1.14251748e-01 -1.99259773e-01
      -1.12200193e-01 -9.44576636e-02 -2.37946212e-01 2.24519782e-02
      -3.38204764e-02 6.54541925e-02 1.61089972e-01 -2.26185918e-02
      -1.46877378e-01 -9.57595184e-02 -1.55292332e-01 -1.33267328e-01
      1.64207697e-01 9.81354117e-02 4.98947762e-02 -1.29105002e-01
      -3.06035340e-01 -1.31170407e-01 -1.07902654e-01 -3.64180915e-02
      -7.41104335e-02 5.53090759e-02 -6.32097339e-03 4.52352166e-02
      -1.91695839e-02 -1.07442409e-01 -1.19832195e-01 -1.37503222e-01
      -6.91621080e-02 1.61829323e-03 1.16805218e-01 9.44132805e-02
      -8.59791189e-02 2.84343641e-02 -9.81291011e-02 -9.91693884e-02
      -1.29094899e-01 -1.30477354e-01 -9.52503011e-02 -2.46263370e-02
      1.09300856e-03 1.68160558e-01 1.79855779e-01 -3.40774544e-02
      -8.30378160e-02 -2.07630202e-01 -1.00188397e-01 -8.05792883e-02
      4.95022684e-02 9.48774889e-02 2.71244030e-02 -1.47115830e-02
      -1.34361148e-01 -1.05232231e-01 -1.54006928e-01 -1.17385916e-01
      -4.53024544e-02 -8.04329515e-02 2.79357415e-02 1.32809818e-01
      1.46366134e-01 -5.65891601e-02 -1.50257722e-01 -1.67692050e-01
      -1.14648461e-01 8.84986073e-02 8.88053626e-02 1.40345573e-01
      1.53485283e-01 2.30677351e-01 1.52619734e-01 -3.03575676e-02
      -2.53532231e-01 -7.14478940e-02 -1.64126202e-01 5.70188016e-02
      4.03873809e-02 -6.72627017e-02 4.74086497e-03 -1.26292063e-02
      2.43122410e-02 -2.66173054e-02 1.10963352e-01 -3.63592505e-02
      3.11754681e-02 -7.95202032e-02 -6.33416465e-03 8.96178186e-02
      -2.95686140e-03 -1.44493422e-02 -1.61478892e-01 -6.86564818e-02
      1.14668384e-01 1.57907665e-01 1.14702396e-01 -1.50882646e-01
      1.35774435e-02 4.15837690e-02 -6.48993859e-03 -5.04681244e-02
      6.63340166e-02 -5.62420115e-02 5.09379730e-02 -4.79748882e-02
      -7.77547136e-02 1.42968250e-02 9.89445373e-02 2.14233577e-01
      1.73871875e-01 2.00500458e-01 4.84843850e-02 1.33735821e-01
      -9.77087021e-02 -2.01924548e-01 -1.25414997e-01 3.40873711e-02
      3.98439802e-02 1.88805968e-01 -4.58375439e-02 -1.32657969e-02
      5.58062904e-02 -1.99271038e-01 -4.82499413e-02 9.65914056e-02
      7.88198858e-02 1.64710686e-01 1.19897716e-01 1.92653075e-01
      7.14813322e-02 8.37428495e-02 7.51794130e-03 -2.12142736e-01
      -3.23840156e-02 -1.04819518e-02 2.26816107e-02 1.25350416e-01
      -4.56396826e-02 1.54248197e-02 -1.12555489e-01 -1.95685685e-01
      6.37527406e-02 3.56867909e-02 5.73312864e-02 -1.10653304e-01
      5.00858650e-02 4.11981829e-02 8.10416415e-02 2.28168052e-02
      -2.15163250e-02 1.25768602e-01 5.09601943e-02 -1.14685208e-01
      9.52810273e-02 4.38559912e-02 6.15735166e-02 2.12432654e-03
      -1.21652670e-01 4.72146161e-02 5.23804091e-02 1.26718670e-01
      8.70924667e-02 -7.38344491e-02 1.50843086e-02 7.41870850e-02
      6.01797923e-02 -5.10331877e-02 8.82075261e-03 9.55279097e-02
      1.75905228e-02 -5.83469756e-02 6.28108233e-02 7.25033730e-02
      8.38366076e-02 -5.49352281e-02 -1.03024669e-01 6.38277680e-02
      -4.22328487e-02 -9.57217291e-02 -7.23369420e-02 -2.06610467e-02
      -8.89265463e-02 -3.89928780e-02 5.46920411e-02 -9.83192027e-02
      -3.29191945e-02 1.39830649e-01 -3.17829698e-02 4.54547146e-04
      5.73080443e-02 -6.84334338e-02 3.29259271e-03 4.74068299e-02
      -6.81452900e-02 1.04060903e-01 -1.11674614e-01 -2.40961723e-02
      -7.62788206e-02 -9.23004895e-02 -1.19634476e-02 1.80284516e-03
      4.99670729e-02 -8.22128654e-02 -1.63719609e-01 7.78087825e-02
      -1.31344690e-03 -9.22599733e-02 -1.30308852e-01 -1.29802302e-01
      -2.64687482e-02 -8.44358802e-02 -1.58999950e-01 -8.92740674e-03
      3.20188440e-02 1.98815223e-02 8.86470377e-02 1.09814994e-01
      2.02171892e-01 2.81936135e-02 -4.60066013e-02 5.56511059e-02
      8.76714289e-02 -1.04632890e-02 -2.95491219e-02 1.15975225e-02
      -2.02956665e-02 -4.67366613e-02 3.97171266e-02 2.76088808e-02
      1.37303814e-01 5.27369156e-02 1.28659189e-01 6.22378215e-02
      5.31814098e-02 1.33555681e-01 1.25175744e-01 1.57692656e-01
      -8.41486529e-02 -4.69668508e-02 -5.50345890e-02 6.32620901e-02
      -7.59567991e-02 -2.19611481e-01 -9.23506021e-02 -1.05957128e-01
      2.87437458e-02 1.00581562e-02 -9.46117342e-02 5.83546283e-03
      1.38091845e-02 8.19372088e-02 7.48055279e-02 1.55256689e-01
      -1.16772979e-01 1.78094450e-02 -9.76291150e-02 3.38668600e-02
      -7.66208097e-02 5.20206951e-02 7.30135217e-02 5.34397624e-02
      9.89762619e-02 -1.86992973e-01 -5.60897216e-02 -9.38471183e-02
      9.24606528e-03 -4.20217067e-02 6.34943694e-02 3.65253625e-04
      -3.44413966e-02 7.08213970e-02 -8.53347331e-02 7.45374858e-02
      1.19572908e-01 5.26903495e-02 8.89146104e-02 2.39151388e-01
      7.71414936e-02 4.89282645e-02 4.69071008e-02 -1.26022413e-01
      -3.89187038e-02 2.35526413e-02 1.58321783e-01 6.30894154e-02
      -6.00787923e-02 -8.46748352e-02 -8.85403305e-02 -1.58559196e-02
      -2.33824477e-02 2.19085455e-01 5.35588115e-02 2.01913834e-01
      6.97199777e-02 3.32484320e-02 -1.43568069e-02 -1.23652525e-01
      -3.77794951e-02 -4.04361412e-02 1.65243745e-01 4.77130972e-02
      1.93082944e-01 2.06791759e-01 1.34244442e-01 -4.26543392e-02
      -4.26704027e-02 7.48194233e-02 -1.63251106e-02 1.75511450e-01
      3.16792503e-02 2.03459963e-01 1.59367502e-01 1.41962886e-01
      -3.92556340e-02 -1.59071431e-01 -3.18238069e-03 -9.28459913e-02
      7.53008127e-02 -1.55443802e-01 -5.54350019e-03 2.16706052e-01
      1.16931103e-01 1.98021933e-01 3.32265273e-02 2.43816674e-02
      -4.37096134e-02 9.90483239e-02 6.09617941e-02 6.81187492e-03
      -8.12032148e-02 4.15233430e-03 2.70215988e-01 3.18229377e-01
      7.44400248e-02 -5.61015233e-02 7.47872069e-02 2.34340280e-01
      2.61430562e-01 1.10407053e-02 -2.26305500e-02 1.55658452e-02
      1.02689443e-02 -8.36611316e-02 -7.21557513e-02 6.87386692e-02
      -2.19626538e-02 -7.99549296e-02 -4.13381271e-02 -1.59668908e-01
      -2.94442959e-02 -6.56597242e-02 -1.78513303e-01 -4.37205806e-02
      4.68941480e-02 1.76148206e-01 4.43793163e-02 -1.05507679e-01
      -1.36371329e-01 1.65657833e-01 1.92749485e-01 -2.38409941e-03
      3.94288413e-02 8.90402049e-02 2.42314979e-01 3.67946178e-01
      1.79105550e-02 -1.39550149e-01 -3.52799296e-02 -3.99548449e-02
      -1.56591490e-01 -1.82863519e-01 -1.24210045e-01 -2.34158449e-02
      2.33322173e-01 4.95553855e-03 -1.54054344e-01 2.04239655e-02
      9.83865280e-03 -6.54401556e-02 1.58413146e-02 -1.47324592e-01
      1.69758186e-01 2.42066637e-01 -8.46220031e-02 -9.23311189e-02
      -5.52192815e-02 -1.48267493e-01 -3.05720776e-01 -2.03547046e-01
      -1.05864711e-01 -3.23733799e-02 2.47679487e-01 -2.82684453e-02
      3.57520580e-02 8.27729031e-02 -4.23637629e-02 -5.24228141e-02
      -1.83523342e-01 -1.15045205e-01 -7.35897794e-02 1.56956404e-01
      4.30832580e-02 6.12067943e-03 8.54751021e-02 2.07067542e-02
      -2.36767635e-01 -1.54087141e-01 -1.22349933e-01 -8.13637301e-02
      -5.67659549e-02 4.87359427e-02 2.58772485e-02 8.55315328e-02
      -5.95606156e-02 -7.71693885e-02 -6.20976761e-02 5.89149520e-02
      5.25855161e-02 3.19441080e-01 1.49633184e-01 7.64169320e-02
      6.54952526e-02 -2.70662475e-02 -6.28828779e-02 -1.57549065e-02
      2.34934827e-03 7.35455453e-02 6.39036447e-02 1.12286173e-01
      1.21680265e-02 1.06978223e-01 1.11770809e-01 -6.58821985e-02
      -7.64102042e-02 -1.65659841e-02 -2.23635416e-02 -5.36981644e-03
      -1.98950749e-02 -2.80789342e-02 9.47795692e-04 -2.76950672e-02
      -4.55149123e-03 -2.38017902e-01 -1.06558233e-01 1.46521563e-02
      9.75688845e-02 -5.32251447e-02 1.21754460e-01 1.16544642e-01
      3.96582037e-02 -2.90563237e-02 -2.96159927e-02 4.85869460e-02
      9.10144299e-02 1.20803021e-01 2.98261177e-02 1.38797447e-01
      -2.31502920e-01 -2.03739941e-01 -1.08939759e-01 -1.26259342e-01
      -6.81598438e-03 -6.18787147e-02 4.34205458e-02 4.86830696e-02
      -1.92130394e-02 2.67372411e-02 -4.11126437e-03 -4.70487513e-02
      -9.49593335e-02 -1.37347519e-01 -4.00274023e-02 3.82547714e-02
      2.55886130e-02 8.84316489e-02 8.13165903e-02 4.73915227e-02
      -5.90654165e-02 -5.55802025e-02 -1.00773953e-01 -1.57490641e-01
      -1.46462977e-01 -4.90156114e-02 1.94148168e-01 1.44231752e-01
      2.24366095e-02 -6.06990904e-02 -8.18468630e-02 -4.76392452e-03
      2.48710811e-02 2.75959931e-02 9.00830775e-02 1.28615677e-01
      1.11132264e-01 4.41422909e-02 8.83787423e-02 8.39620177e-03
      -6.82434738e-02 -5.27178496e-02 -3.15765315e-03 4.71714064e-02
      9.78254005e-02 8.45612213e-02 3.54091674e-02 -1.35010593e-02
      -1.77489832e-01 -1.88773051e-01 -1.88071832e-01 1.38233779e-02
      6.39228448e-02 1.07014723e-01 1.71995118e-01 -9.90797207e-03
      -5.64351492e-02 -1.13252364e-01 -6.63669556e-02 -4.61805016e-02
      -3.97644788e-02 6.12081625e-02 1.61910299e-02 9.28840935e-02
      6.41673058e-02 9.34262723e-02 -1.98577382e-02 -2.00827122e-01
      -8.86903405e-02 1.12964481e-01 -6.71484461e-03 3.45308445e-02
      5.47713079e-02 -3.84038575e-02 4.79258671e-02 -1.25257643e-02
      -8.83793384e-02 -1.17310345e-01 7.62081817e-02 -5.34051359e-02
      1.01162456e-01 2.79414579e-02 -8.34043771e-02 -1.59676820e-01
      -1.00878596e-01 -3.39907743e-02 -6.09395851e-04 -1.00318063e-02
      1.24553524e-01 8.98963735e-02 -2.90005445e-03 5.35535365e-02
      -1.39732584e-01 -7.01389462e-02 -3.16192545e-02 6.41392320e-02
      1.14421271e-01 7.83947408e-02 6.94342097e-03 -1.92412641e-03
      -5.18183708e-02 -1.06559746e-01 -1.59122765e-01 -9.29388124e-03
      -9.26052853e-02 -1.07795462e-01 3.74035873e-02 1.20797371e-02
      1.86527744e-02 -4.50181514e-02 -1.54236332e-01 -4.24238257e-02
      -4.44043167e-02 -1.64367557e-01 -1.54027894e-01 6.07766211e-03
      7.19909668e-02 5.35890423e-02 4.79218215e-02 6.18821289e-03
      -4.18183999e-03 -3.65119288e-03 1.32901371e-01 1.30655259e-01
      1.56510368e-01 1.45079512e-02 4.63573560e-02 -3.86333056e-02
      -1.25837758e-01 -1.67785510e-01 -3.45627381e-03 2.01569721e-01
      2.48329341e-01 2.16995344e-01 -1.25151336e-01 -9.54003930e-02
      -1.28037646e-01 -7.23064989e-02 1.75738137e-03 5.84112406e-02
      -4.83602919e-02 -9.44828093e-02 -1.64382368e-01 -5.93946613e-02
      -1.22770086e-01 -1.45152226e-01 -5.45022786e-02 3.45968790e-02
      -3.10119968e-02 9.87027809e-02 5.58345281e-02 -5.49518615e-02
      1.07763959e-02 5.99255413e-02 -3.25476676e-02 1.57846101e-02
      4.12364230e-02 6.50219321e-02 2.61489362e-01 2.31944144e-01
      8.72254372e-02 -3.89140286e-02 3.60943004e-02 5.43604046e-02
      9.71111730e-02 9.22388360e-02 1.19282253e-01 5.83678596e-02
      -5.84909916e-02 -9.51165259e-02 3.44476812e-02 2.59386972e-02
      2.85974964e-02 6.39471831e-03 -3.99165303e-02 8.20108429e-02
      1.46229699e-01 1.15104936e-01 -1.82726514e-02 -4.84678000e-02
      1.63027178e-02 -1.38128012e-01 -3.35332043e-02 -1.11662216e-01
      1.00920446e-01 -9.01816562e-02 -1.46520376e-01 -1.03898041e-01
      1.63063467e-01 2.65395820e-01 8.14436749e-02 1.23417057e-01
      1.13125756e-01 9.65692475e-02 7.93804452e-02 1.01426899e-01
      7.46732429e-02 -1.36782899e-01 6.82542250e-02 4.66549657e-02
      4.80435193e-02 1.05869569e-01 -1.19100042e-01 -7.87222609e-02
      -1.54454947e-01 -4.70894724e-02 9.26133469e-02 1.57473147e-01
      -5.42259626e-02 -1.54493796e-02 -4.36903834e-02 7.79830441e-02
      -4.76885028e-02 -4.62839715e-02 1.51676387e-02 -8.81678537e-02
      6.40666038e-02 -5.00675365e-02 -1.09977745e-01 -3.36714052e-02
      -1.29225716e-01 -1.31981149e-01 -1.30865306e-01 -1.22267447e-01
      -4.46573384e-02 -2.68512871e-02 8.76325220e-02 -5.81966974e-02
      1.53719902e-01 7.35296356e-03 7.75248185e-02 -8.41151923e-02
      -8.85438360e-03 -1.74693968e-02 9.51232016e-03 -7.76556730e-02
      -8.62920564e-03 -2.19650343e-02 -1.28445765e-02 1.14346147e-01
      -8.04577097e-02 -6.49821460e-02 -5.33890054e-02 4.04909290e-02
      5.08756712e-02 -7.70883337e-02 -1.70261245e-02 -6.08892255e-02
      4.14194465e-02 3.70408706e-02 -1.67141967e-02 -1.02041982e-01
      5.54082170e-02 4.92405854e-02 -2.06615981e-02 -4.64355350e-02
      -6.02636971e-02 4.27041464e-02 -1.52511284e-01 -7.00379983e-02
      -1.09570615e-01 -1.39977299e-02 -1.05308458e-01 -5.21722063e-02
      4.31805514e-02 -1.35481441e-02 1.03798486e-01 -1.71569780e-01
      -1.29916295e-01 1.20712712e-01 -9.65578333e-02 -3.64054255e-02
      -3.85736860e-02 -4.15556990e-02 1.60515532e-02 -5.07993288e-02
      -1.81235343e-01 -4.53913547e-02 -1.06359534e-01 -9.40242782e-02
      1.50178298e-02 2.94733196e-02 -8.94971713e-02 -6.62901178e-02
      -1.28588062e-02 -1.90752909e-01 -2.26525724e-01 5.62378392e-02
      -1.57145083e-01 -4.39156406e-02 -1.55520933e-02 -1.18085451e-01
      -9.26461816e-02 -1.30129486e-01 -8.63981172e-02 -2.86476919e-03
      9.43464041e-02 -1.35128617e-01 -5.13652042e-02 8.22087303e-02
      6.69991449e-02 8.66117105e-02 -1.18493689e-02 -1.07225776e-01
      -2.24139113e-02 -7.61440918e-02 -1.32312030e-01 -1.19315758e-01
      4.06077057e-02 1.50163949e-03 6.08135872e-02 -4.74403761e-02
      -2.15964094e-01 -5.76386154e-02 6.04343042e-02 -4.10422459e-02
      1.98560127e-04 2.05241572e-02 2.28161793e-02 1.78127542e-01
      7.15087913e-03 1.84694808e-02 -8.50207289e-04 -9.34966356e-02
      1.31923622e-02 -5.66002242e-02 -2.37536826e-03 -1.15498919e-02
      6.79504648e-02 9.21178684e-02 -1.13343380e-01 3.85079049e-02
      5.14090387e-03 -7.08421469e-02 -2.84422897e-02 1.22766033e-01
      4.12168242e-02 1.27668485e-01 1.65175125e-02 -8.21318105e-02
      1.40861003e-02 1.18904941e-01 -6.13756813e-02 6.49937987e-03
      2.91424766e-02 -7.20967278e-02 1.65142566e-01 7.70477504e-02
      4.88105081e-02 6.28410056e-02 2.19695959e-02 9.02788267e-02
      -2.72096340e-02 7.44055957e-02 -1.89491753e-02 -5.57198711e-02
      5.30920960e-02 -2.80569140e-02 5.69335744e-02 7.34082088e-02
      -8.57716519e-03 -5.91321895e-03 9.54056755e-02 7.47168204e-03
      -6.83659166e-02 -7.85982162e-02 3.80731584e-03 2.38830876e-02
      4.70174244e-03 -1.13183849e-01 -1.72107220e-02 6.62219971e-02
      5.28958291e-02 1.70670599e-01 1.25705376e-01 -3.33249045e-04
      3.11235767e-02 3.14150639e-02 2.40451191e-02 -4.56218012e-02
      1.35908633e-01 -7.85654560e-02 -1.36466790e-03 -6.91944659e-02
      -1.40756890e-01 -1.00315856e-02 4.00782116e-02 -1.20232999e-01
      -6.23337328e-02 1.57778159e-01 3.64825688e-02 9.29544214e-03
      3.64714675e-02 -1.38472453e-01 1.29343808e-01 4.43956442e-02
      -2.55838167e-02 -5.57055958e-02 1.87547028e-01 -1.77387637e-03
      6.45974874e-02 7.11961463e-02 -6.43067658e-02 7.86757155e-05
      1.20493779e-02 1.00385748e-01 1.40392959e-01 8.42585117e-02
      -4.31327708e-02 7.03803822e-02 1.42269209e-01 1.78554039e-02
      -1.89029817e-02 -1.07440956e-01 -1.19987734e-01 -3.03705726e-02
      -3.38527709e-02 4.10428550e-03 -2.24305689e-02 1.51287213e-01
      1.52288005e-02 -1.20341159e-01 -4.68095653e-02 8.94517638e-03
      2.93348804e-02 1.29754797e-01 -5.83757162e-02 6.35100678e-02
      4.31780778e-02 1.13468997e-01 6.07746392e-02 -1.05526581e-01
      9.25558433e-03 -1.28868641e-02 1.42454609e-01 -1.22138366e-01
      -6.71366453e-02 -9.09563974e-02 6.90891892e-02 3.56325991e-02
      -8.02110955e-02 2.55405195e-02 1.45027563e-01 6.97588101e-02
      2.35122740e-02 8.39730352e-02 8.80097896e-02 1.83284134e-02
      -9.92186815e-02 -7.06452727e-02 7.00406134e-02 7.04692304e-02
      -9.51240305e-03 -4.64198403e-02 -7.72540346e-02 -1.10036567e-01
      -9.24419705e-03 -9.30051878e-02 -5.68142608e-02 7.96201751e-02
      1.32497083e-02 2.51302123e-01 -6.76067099e-02 6.62929937e-02
      1.69245172e-02 3.46536338e-02 6.80036992e-02 -1.11794010e-01
      9.15090814e-02 1.85589008e-02 4.05410938e-02 -1.45044625e-02
      2.70142071e-02 -2.06773147e-01 -1.78557247e-01 -2.49960143e-02
      6.51711272e-03 2.23411813e-01 1.48495585e-01 8.52849334e-02
      6.73566684e-02 1.13424607e-01 2.84943823e-02 1.24619737e-01
      8.35291296e-03 -4.54573818e-02 8.87181051e-03 2.21678941e-03
      -2.11497601e-02 3.07536684e-02 1.55918360e-01 8.51058215e-02
      7.60098621e-02 -4.08370756e-02 5.86091951e-02 1.58467174e-01
      1.14155874e-01 6.78674057e-02 -2.33469289e-02 -6.71665817e-02
      -1.45051897e-01 -6.36316836e-02 -1.66043732e-02 1.99124087e-02
      3.03937048e-02 -3.33511978e-02 -1.47188036e-02 -4.61903028e-02
      -3.97933871e-02 -1.43599346e-01 -6.70642406e-02 -8.87822136e-02
      -4.73118760e-02 -1.39529109e-02 -7.33137280e-02 1.02124281e-01
      6.92621171e-02 2.17864081e-01 8.16305950e-02 2.49585733e-02
      -1.36810869e-01 -4.83705774e-02 -1.01809256e-01 -1.15527190e-01
      -4.38783877e-02 2.62469649e-02 2.38149345e-01 1.90213800e-03
      4.25625667e-02 -1.08260795e-01 1.45991623e-01 9.22280923e-02
      1.14190700e-02 1.81577995e-01 5.13886698e-02 1.69269904e-01
      1.25914022e-01 -4.22978327e-02 -1.58919603e-01 -3.31898928e-02
      3.90657298e-02 -2.28709690e-02 5.81557490e-02 -5.94958812e-02
      2.32779726e-01 4.10129651e-02 -1.26436744e-02 -1.37745276e-01
      9.78653319e-03 6.46826327e-02 8.15466046e-02 -6.72357008e-02
      -4.13292013e-02 9.72747207e-02 6.38813302e-02 6.88244998e-02
      4.24161442e-02 4.23656814e-02 1.48865134e-01 -6.22912087e-02
      -7.00262263e-02 -7.61401951e-02 2.09141579e-02 4.41786796e-02
      -2.82386355e-02 -8.14909935e-02 -4.82068509e-02 2.92173661e-02
      -7.65449926e-02 1.24830365e-01 -6.30734041e-02 1.71768904e-01
      -3.66788991e-02 6.43661469e-02 2.19657756e-02 7.69746443e-03
      5.12411073e-02 -2.12329105e-01 1.21180695e-02 8.28826651e-02
      4.68581766e-02 -3.72444242e-02 -9.72411409e-02 -2.39610393e-02
      -3.88307646e-02 2.80596968e-02 4.03502733e-02 -2.32379921e-02
      2.90041640e-02 -4.58584540e-02 -6.80118948e-02 5.53671196e-02
      -2.26134472e-02 -4.44999151e-02 1.58075131e-02 1.19690904e-02
      -6.40329793e-02 -2.45486889e-02 -1.42601123e-02 -5.38825393e-02
      1.64773017e-01 -3.79473865e-02 -1.66059896e-01 4.84219976e-02
      -1.62964195e-01 4.47852956e-03 1.27136216e-01 2.97959112e-02
      -1.97831672e-02 -5.14560677e-02 -2.14007287e-03 -2.98048377e-01
      5.76794446e-02 -6.76842630e-02 -7.98302442e-02 -4.93951254e-02
      -1.20664565e-02 -7.34522268e-02 -2.06889492e-02 -1.34747952e-01
      -8.07165056e-02 -4.46695313e-02 -2.46502776e-02 -1.88466460e-02
      -8.74480382e-02 -8.14739466e-02 -1.95342004e-01 2.48275362e-02
      1.04085598e-02 -6.50976673e-02 -8.51587430e-02 -8.97485688e-02
      -1.75537001e-02 6.09563030e-02 1.53310122e-02 -8.33386630e-02
      2.50972603e-02 3.81416641e-02 -2.12489218e-01 -5.13564646e-02
      -1.62703916e-03 1.01416185e-02 -6.09379634e-02 -1.30980872e-02
      -2.83898134e-02 -7.53618479e-02 -1.57885343e-01 -5.90535551e-02
      -9.87984315e-02 -1.64955556e-01 -4.91773672e-02 1.32810501e-02
      1.45376483e-02 3.29039693e-02 -9.27951187e-03 1.14015229e-01
      -9.77392644e-02 2.70810015e-02 -7.28091896e-02 1.70375910e-02
      6.40318021e-02 1.49948880e-01 2.46796135e-05 -1.36239544e-01
      -1.03935823e-01 5.40075079e-02 -3.07121011e-03 -1.29697755e-01
      5.59307151e-02 3.37634236e-02 -5.98068945e-02 -3.97541970e-02
      -6.23091683e-02 -2.58042421e-02 2.82119587e-03 7.88906515e-02
      -4.89799827e-02 -1.09712385e-01 -1.01515554e-01 3.31094228e-02
      -2.80022062e-02 -4.54765111e-02 -5.47911674e-02 2.72382777e-02
      -1.60629693e-02 -1.30216375e-01 4.09415886e-02 -7.73593336e-02
      -1.61331624e-01 -1.23747930e-01 -2.05494761e-02 1.90462470e-02
      2.68417336e-02 8.06889869e-03 3.02850697e-02 8.02385211e-02
      8.02478194e-02 1.45068526e-01 7.65373707e-02 1.10563271e-01
      3.35259847e-02 -4.06794176e-02 1.28381714e-01 -9.28904638e-02
      -2.11679656e-02 -1.58599675e-01 9.48486477e-02 -1.02961779e-01
      -1.02023609e-01 -4.69308682e-02 -1.36983944e-02 -2.27616951e-02
      -1.36497468e-01 -4.85688746e-02 -2.88723677e-04 -5.27235344e-02
      3.47018018e-02 2.00280085e-01 7.07484782e-02 -1.66949183e-01
      -1.36277555e-02 -1.16504893e-01 -1.08924314e-01 -6.78350851e-02
      -6.39171004e-02 -6.26970455e-02 -1.10720448e-01 -7.35516027e-02
      3.38484608e-02 2.50583701e-02 -5.08926623e-02 1.19225513e-02
      5.70506155e-02 8.94445255e-02 -8.88576265e-03 -1.57907940e-02
      4.55308743e-02 -3.84701230e-02 5.06170876e-02 -2.46400349e-02
      -8.43809471e-02 2.43764166e-02 6.95018843e-02 1.73777398e-02
      9.31134000e-02 -5.26615717e-02 -8.15433189e-02 -3.40989493e-02
      -1.00887679e-01 -1.18948668e-01 1.01975434e-01 -8.36925134e-02
      1.92945972e-02 -8.82925764e-02 -1.08338416e-01 -8.74311998e-02
      -1.41255688e-02 5.29237688e-02 -4.92016077e-02 -4.21493873e-02
      6.06730431e-02 -3.29698250e-02 -3.95371281e-02 -1.53983101e-01
      4.23660427e-02 1.36080325e-01 1.02788888e-01 -1.17921568e-01
      -8.63844231e-02 -2.29264963e-02 -1.89117920e-02 6.40866309e-02
      -4.38840948e-02 -6.87119439e-02 -4.14611250e-02 -4.53182086e-02
      -4.37859185e-02 3.73397879e-02 -5.54763064e-05 5.32436296e-02
      9.13459621e-03 2.03562318e-03 -2.32437216e-02 1.58396158e-02
      7.73235410e-02 -2.87884455e-02 -1.63665593e-01 -1.39958237e-03
      -3.73061001e-02 5.34651391e-02 -9.37389582e-02 1.24177076e-01
      8.06120187e-02 8.13776851e-02 -9.30345524e-03 3.14067863e-02
      -5.74522279e-02 4.58892621e-02 -2.24686991e-02 4.56601456e-02
      -1.87523488e-03 -1.12246029e-01 4.98309359e-02 5.96760064e-02
      6.20891266e-02 2.31073089e-02 1.18084038e-02 -8.07510465e-02
      -6.52341321e-02 1.55817285e-01 -1.60584912e-01 -7.73850083e-02
      -2.69433018e-02 -2.05675373e-03 4.82372334e-03 -1.22342736e-01
      -6.64169863e-02 2.14716405e-01 1.29434764e-01 3.23498100e-02
      1.28268301e-01 7.62651488e-02 3.03802118e-02 4.23085690e-02
      -9.42001566e-02 -1.11901358e-01 3.28148641e-02 1.16780028e-01
      -2.42259856e-02 -1.46218538e-01 -8.13469198e-03 5.21425810e-03
      3.05988304e-02 -1.54120833e-01 -2.35807553e-01 8.93868059e-02
      1.14571296e-01 7.82140996e-03 -8.23041648e-02 -1.22608535e-01
      3.62183410e-03 -4.11679111e-02 -1.24924965e-01 -2.54929177e-02
      1.58372119e-01 4.56830710e-02 3.41234989e-02 -6.24559354e-03
      2.04014387e-02 6.99013546e-02 2.82073002e-02 -5.91872670e-02
      -7.70922080e-02 3.08726162e-01 -1.90912098e-01 -1.36471123e-01
      3.85686662e-03 5.18735386e-02 1.03889138e-01 -1.62947569e-02
      3.69789191e-02 -9.28477868e-02 -1.32512316e-01 -1.59209520e-01
      8.19774643e-02 9.65113416e-02 1.09706722e-01 5.76242320e-02
      1.08565614e-01 -2.63702702e-02 -1.28254190e-01 -1.06422037e-01
      1.42419070e-01 1.05872028e-01 -7.51700997e-02 1.47983491e-01
      -8.52696076e-02 1.95182916e-02 -3.81847285e-02 -7.51440004e-02
      1.12536654e-01 4.96829748e-02 -6.01185253e-03 -5.89119680e-02
      6.19154312e-02 1.99283585e-02 3.90110426e-02 -2.40022223e-02
      1.10375166e-01 -8.71718675e-03 8.67414102e-02 6.44088760e-02
      1.61203481e-02 1.47008166e-01 -1.28349420e-02 1.59475267e-01
      8.07105228e-02 -3.13029766e-01 -9.00061354e-02 1.08609192e-01
      6.11454770e-02 -1.15032598e-01 2.86787804e-02 -9.69563127e-02
      8.07422921e-02 8.63193423e-02 -5.25995810e-03 -3.94336917e-02
      1.38537064e-01 -9.72292274e-02 -1.44257799e-01 7.66937509e-02
      -1.51135195e-02 3.84404100e-02 2.25828514e-02 2.94776708e-02
      1.80378050e-01 7.52239302e-02 1.32845649e-02 -5.49130701e-02
      1.70513049e-01 -6.61637709e-02 7.38890693e-02 -5.50707057e-02
      2.10066959e-02 1.59695670e-01 -1.48882624e-02 -8.01775083e-02
      -2.98609525e-01 -5.32141961e-02 4.03342135e-02 7.16858208e-02
      -8.69830251e-02 -1.11326307e-01 -1.00757711e-01 -1.90190654e-02
      -1.34841442e-01 -1.17754452e-01 3.21215615e-02 -4.69694892e-03
      2.92968936e-02 -2.86464691e-01 -1.20973177e-01 -2.30602566e-02
      -1.07519910e-01 -1.13513798e-01 4.40748744e-02 2.72795353e-02
      -1.51925743e-01 3.40153985e-02 -5.71822412e-02 4.47396301e-02
      5.18522933e-02 -1.96880177e-02 -7.99263567e-02 -5.64216040e-02
      1.30962759e-01 -2.36226901e-01 -3.67082171e-02 -1.39211014e-01
      -9.22275260e-02 -1.32707478e-02 -1.29945934e-01 5.07430881e-02
      1.23541236e-01 1.06585465e-01 -1.41925797e-01 1.23366326e-01
      9.92608517e-02 1.19902954e-01 -6.15477227e-02 -1.11627363e-01
      1.01591118e-01 -1.25061078e-02 -9.94720533e-02 -1.20936006e-01
      5.02957888e-02 4.41326834e-02 1.50472932e-02 -2.15076640e-01
      -9.24484630e-04 8.72455239e-02 -3.58881950e-02 1.81519240e-01
      -9.54153761e-02 6.71232790e-02 2.14777570e-02 -7.74418414e-02
      6.72978833e-02 -3.87211666e-02 4.78274152e-02 -8.87989178e-02
      -5.20423353e-02 -1.11217976e-01 -1.00544542e-01 -1.70261279e-01
      -5.22225983e-02 -3.98378931e-02 -7.39683956e-02 9.68331769e-02
      5.63521534e-02 3.74501683e-02 -3.55797000e-02 9.38592479e-02
      -4.04896308e-03 -6.03683926e-02 -1.27534613e-01 -1.61635771e-01
      -1.41586196e-02 9.17015411e-03 -2.95377504e-02 -8.47611856e-03
      7.89212063e-02 -1.00386031e-01 -7.80039877e-02 -1.33051783e-01
      8.83752387e-03 9.28071886e-02 3.45478693e-05 -7.44739221e-03
      -1.04817770e-01 -1.18030474e-01 2.04477180e-02 4.64714393e-02
      5.95916770e-02 8.21559802e-02 1.21153928e-01 -6.13600202e-02
      -7.67509565e-02 -1.50001854e-01 -1.47013769e-01 -1.21548705e-01
      -1.09132893e-01 -1.70500092e-02 -3.02426703e-02 7.42542595e-02
      6.39810562e-02 -3.07766884e-03 1.12854198e-01 1.59018874e-01
      1.11272372e-01 1.73735455e-01 -1.79062001e-02 4.14314726e-03
      5.72717600e-02 -8.25923830e-02 -1.41286850e-01 1.89271439e-02
      4.85826209e-02 7.31182322e-02 1.48513317e-01 -6.37414977e-02
      2.18230486e-01 1.23023346e-01 -5.41539080e-02 5.30810282e-02
      -9.68993008e-02 8.97582900e-03 -9.80258062e-02 4.44696769e-02
      -6.16981983e-02 7.04661757e-02 4.21218611e-02 -1.08186170e-01
      3.83524932e-02 -4.03507100e-03 4.15296815e-02 -5.53255193e-02
      -4.45948914e-02 -5.64232804e-02 2.94433422e-02 8.28751400e-02
      -1.56787112e-01 -2.28584707e-02 4.42394093e-02 1.29636407e-01
      2.74665542e-02 1.32022172e-01 -4.39971946e-02 1.35440798e-02
      8.83668382e-03 -2.33880430e-01 2.43335986e-03 8.94358605e-02
      3.19658034e-02 -6.49398267e-02 3.69516425e-02 4.62537035e-02
      9.09115225e-02 6.81790113e-02 -9.22724158e-02 6.63721561e-02
      7.18498826e-02 1.26422122e-01 -7.00523704e-02 -1.05030164e-01
      8.35731924e-02 -8.66293013e-02 -2.38553993e-02 -1.71201885e-01
      1.06060818e-01 4.01714034e-02 -6.74598524e-03 -1.90576732e-01
      -1.74288720e-01 -5.70643023e-02 8.41805190e-02 -3.35535444e-02
      -3.49965468e-02 8.72998610e-02 1.17438018e-01 1.26883406e-02
      -3.31490450e-02 5.52412719e-02 -4.69452403e-02 -5.17150275e-02
      -1.74683884e-01 -1.96609795e-02 8.31172764e-02 1.44538935e-02
      -9.08591691e-03 -5.55049665e-02 -2.92012524e-02 -3.48042250e-02
      -1.21282466e-01 8.37404057e-02 2.47987099e-02 1.41446456e-01
      -1.85355283e-02 5.11629023e-02 -1.67557478e-01 -1.55835837e-01
      -3.56611535e-02 -2.10123882e-01 1.73135653e-01 -9.86912195e-03
      -1.65133411e-03 -6.74409270e-02 1.85643528e-02 1.98591910e-02
      -4.33803201e-02 -1.20821901e-01 -2.03983355e-02 -9.27705988e-02
      4.20111157e-02 1.26117647e-01 2.76828278e-03 -4.51733731e-02
      6.07894687e-03 -4.13446501e-02 -1.32871151e-01 1.63088627e-02
      1.39321789e-01 -3.80454399e-02 1.65279135e-02 7.50711234e-03
      -5.21069765e-02 -1.69390570e-02 8.66369531e-02 -1.01454683e-01
      -9.47527811e-02 8.97092223e-02 -4.68409024e-02 -7.61511829e-03
      5.16060479e-02 -1.80684179e-02 8.87730196e-02 -6.98916018e-02
      -8.72022361e-02 1.76305696e-02 -6.80089816e-02 -1.28713965e-01
      -4.04151529e-02 4.23779674e-02 5.71650565e-02 1.10636780e-03
      4.96250670e-03 1.01343334e-01 1.22355511e-02 6.68454021e-02
      -1.96501970e-01 -1.15331508e-01 -1.94141064e-02 -7.68592134e-02
      7.60147050e-02 4.03152630e-02 1.47708952e-02 -1.22607544e-01
      -6.79100379e-02 -1.38220921e-01 -8.80010203e-02 -9.05829966e-02
      -2.92700958e-02 -4.14590277e-02 -1.11283302e-01 -1.56657293e-01
      -3.33922319e-02 -1.98918711e-02 -9.78494659e-02 -8.02470148e-02
      -2.02515706e-01 -3.18076052e-02 -1.42964562e-02 -3.08956746e-02
      1.94045398e-02 -1.36190325e-01 -2.90503092e-02 -7.62633756e-02
      2.92619132e-02 -1.34745792e-01 -7.28363693e-02 1.47181200e-02
      -3.54689662e-03 -1.04064316e-01 -2.85564382e-02 -2.38459222e-02
      -1.16378799e-01 -9.54106301e-02 -6.15290292e-02 -5.04624331e-03
      -8.36719647e-02 -1.23524949e-01 -1.71020791e-01 -5.51703535e-02
      3.35578457e-03 9.24674887e-03 4.53905128e-02 6.99604973e-02
      8.90135616e-02 -1.87723890e-01 -1.57402635e-01 -1.13331817e-01
      -9.44793075e-02 7.19645172e-02 -6.05340675e-02 4.37455028e-02
      9.46670491e-03 -1.18257497e-02 -4.67675272e-03 2.30640685e-03
      -9.24118385e-02 -7.42467791e-02 1.01432256e-01 -1.63692951e-01
      -6.54516891e-02 7.96032324e-03 -1.37970835e-01 -4.28184122e-02
      -1.63690001e-01 -2.08453774e-01 4.42827344e-02 -6.87157223e-03
      6.99710697e-02 8.52136984e-02 9.75926444e-02 1.62208065e-01
      -3.41163464e-02 -2.12805569e-02 -1.59164533e-01 -5.83912767e-02
      -2.31961124e-02 -1.39018551e-01 -5.69364466e-02 9.05366689e-02
      2.04721838e-03 -6.53396621e-02 -1.77432030e-01 -1.58346832e-01
      -7.21250719e-04 7.64568597e-02 -1.20050743e-01 1.91386659e-02
      3.96142760e-03 -8.88850316e-02 -6.04713336e-03 -5.46909124e-02
      -1.31966040e-01 -9.84694287e-02 2.65036076e-02 -4.34810370e-02
      1.52878063e-02 -8.17960501e-02 -4.23431071e-03 -1.19009644e-01
      -3.79821099e-02 -1.99263468e-01 1.19117990e-01 1.50089279e-01
      -1.01715416e-01 9.35816243e-02 2.37423945e-02 4.58749011e-03
      -6.65915608e-02 7.52894208e-02 7.79275550e-04 1.03768460e-01
      1.15278833e-01 4.31012921e-02 -2.67918990e-03 -9.64409858e-03
      1.44908065e-02 5.46049699e-02 8.72178301e-02 -1.10943452e-01
      -9.32201669e-02 -6.91897348e-02 -1.55073991e-02 -2.99906563e-02
      -1.51903644e-01 4.05160971e-02 -3.58506292e-02 1.74622089e-02
      -2.03034580e-01 5.65733463e-02 -5.25910556e-02 -4.30746339e-02
      -1.37721570e-02 -5.86328730e-02 -4.56773750e-02 1.29188853e-03
      -6.74778745e-02 3.87569016e-04 -1.23023003e-01 3.36458758e-02
      -2.32589021e-02 5.28767370e-02 -3.04681212e-02 -2.47513223e-02
      -7.08412752e-02 4.32815291e-02 -1.78379908e-01 -1.23502556e-02
      -1.47229955e-01 5.61020024e-05 2.10688889e-01 -2.84126345e-02
      -1.13592602e-01 -7.92830065e-02 -1.08633831e-01 -7.25906938e-02
      6.06567636e-02 1.04593597e-02 1.73913874e-02 6.08019903e-02
      -8.03104490e-02 -1.32015869e-01 -1.82810187e-01 -1.89576168e-02
      4.67290431e-02 4.12178822e-02 1.49487695e-02 -5.86736128e-02
      1.44760340e-01 1.34168282e-01 7.29083940e-02 -1.76592842e-01
      -2.26705313e-01 1.02493003e-01 4.14798707e-02 -9.25871879e-02
      -9.34853312e-03 3.06968354e-02 -1.04021139e-01 -7.06301853e-02
      3.65249515e-02 4.20111530e-02 1.46726906e-01 -1.64277017e-01
      -1.64017081e-01 -1.43977687e-01 -1.68787733e-01 -1.64988986e-03
      6.98108226e-02 -2.87639070e-02 -1.71017811e-01 1.04671776e-01</_></support_vectors>
  <decision_functions>
    <_>
      <sv_count>1</sv_count>
      <rho>-3.5285651048780378e+00</rho>
      <alpha>
        1.</alpha>
      <index>
        0</index></_></decision_functions></my_svm>
</opencv_storage>
